digraph Tree {
node [shape=box, style="filled, rounded", color="black", fontname=helvetica] ;
edge [fontname=helvetica] ;
0 [label=<safety &le; 0.5<br/>entropy = 1.206<br/>samples = 1728<br/>value = [1210, 384, 69, 65]<br/>class = unacc>, fillcolor="#efb285"] ;
1 [label=<entropy = 0.0<br/>samples = 576<br/>value = [576, 0, 0, 0]<br/>class = unacc>, fillcolor="#e58139"] ;
0 -> 1 [labeldistance=2.5, labelangle=45, headlabel="True"] ;
2 [label=<persons &le; 0.5<br/>entropy = 1.48<br/>samples = 1152<br/>value = [634, 384, 69, 65]<br/>class = unacc>, fillcolor="#f7d6bf"] ;
0 -> 2 [labeldistance=2.5, labelangle=-45, headlabel="False"] ;
3 [label=<entropy = 0.0<br/>samples = 384<br/>value = [384, 0, 0, 0]<br/>class = unacc>, fillcolor="#e58139"] ;
2 -> 3 ;
4 [label=<buying &le; 1.5<br/>entropy = 1.641<br/>samples = 768<br/>value = [250, 384, 69, 65]<br/>class = acc>, fillcolor="#cff8cc"] ;
2 -> 4 ;
5 [label=<maint &le; 0.5<br/>entropy = 0.997<br/>samples = 384<br/>value = [204, 180, 0, 0]<br/>class = unacc>, fillcolor="#fcf0e8"] ;
4 -> 5 ;
6 [label=<entropy = 0.0<br/>samples = 96<br/>value = [96, 0, 0, 0]<br/>class = unacc>, fillcolor="#e58139"] ;
5 -> 6 ;
7 [label=<lug_boot &le; 0.5<br/>entropy = 0.954<br/>samples = 288<br/>value = [108, 180, 0, 0]<br/>class = acc>, fillcolor="#b5f5b0"] ;
5 -> 7 ;
8 [label=<safety &le; 1.5<br/>entropy = 0.946<br/>samples = 96<br/>value = [61, 35, 0, 0]<br/>class = unacc>, fillcolor="#f4c9ab"] ;
7 -> 8 ;
9 [label=<entropy = 0.0<br/>samples = 48<br/>value = [48, 0, 0, 0]<br/>class = unacc>, fillcolor="#e58139"] ;
8 -> 9 ;
10 [label=<maint &le; 1.5<br/>entropy = 0.843<br/>samples = 48<br/>value = [13, 35, 0, 0]<br/>class = acc>, fillcolor="#8bef83"] ;
8 -> 10 ;
11 [label=<entropy = 0.989<br/>samples = 16<br/>value = [9, 7, 0, 0]<br/>class = unacc>, fillcolor="#f9e3d3"] ;
10 -> 11 ;
12 [label=<entropy = 0.544<br/>samples = 32<br/>value = [4, 28, 0, 0]<br/>class = acc>, fillcolor="#61e955"] ;
10 -> 12 ;
13 [label=<maint &le; 1.5<br/>entropy = 0.803<br/>samples = 192<br/>value = [47, 145, 0, 0]<br/>class = acc>, fillcolor="#83ed79"] ;
7 -> 13 ;
14 [label=<buying &le; 0.5<br/>entropy = 0.994<br/>samples = 64<br/>value = [35, 29, 0, 0]<br/>class = unacc>, fillcolor="#fbe9dd"] ;
13 -> 14 ;
15 [label=<entropy = 0.0<br/>samples = 32<br/>value = [32, 0, 0, 0]<br/>class = unacc>, fillcolor="#e58139"] ;
14 -> 15 ;
16 [label=<entropy = 0.449<br/>samples = 32<br/>value = [3, 29, 0, 0]<br/>class = acc>, fillcolor="#5ae84d"] ;
14 -> 16 ;
17 [label=<doors &le; 1.5<br/>entropy = 0.449<br/>samples = 128<br/>value = [12, 116, 0, 0]<br/>class = acc>, fillcolor="#5ae84d"] ;
13 -> 17 ;
18 [label=<entropy = 0.696<br/>samples = 64<br/>value = [12, 52, 0, 0]<br/>class = acc>, fillcolor="#71eb67"] ;
17 -> 18 ;
19 [label=<entropy = 0.0<br/>samples = 64<br/>value = [0, 64, 0, 0]<br/>class = acc>, fillcolor="#47e539"] ;
17 -> 19 ;
20 [label=<maint &le; 1.5<br/>entropy = 1.73<br/>samples = 384<br/>value = [46, 204, 69, 65]<br/>class = acc>, fillcolor="#b0f4aa"] ;
4 -> 20 ;
21 [label=<safety &le; 1.5<br/>entropy = 1.053<br/>samples = 192<br/>value = [38, 141, 0, 13]<br/>class = acc>, fillcolor="#84ee7b"] ;
20 -> 21 ;
22 [label=<lug_boot &le; 0.5<br/>entropy = 0.938<br/>samples = 96<br/>value = [34, 62, 0, 0]<br/>class = acc>, fillcolor="#acf3a6"] ;
21 -> 22 ;
23 [label=<buying &le; 2.5<br/>entropy = 0.758<br/>samples = 32<br/>value = [25, 7, 0, 0]<br/>class = unacc>, fillcolor="#eca470"] ;
22 -> 23 ;
24 [label=<entropy = 0.0<br/>samples = 16<br/>value = [16, 0, 0, 0]<br/>class = unacc>, fillcolor="#e58139"] ;
23 -> 24 ;
25 [label=<entropy = 0.989<br/>samples = 16<br/>value = [9, 7, 0, 0]<br/>class = unacc>, fillcolor="#f9e3d3"] ;
23 -> 25 ;
26 [label=<doors &le; 1.5<br/>entropy = 0.586<br/>samples = 64<br/>value = [9, 55, 0, 0]<br/>class = acc>, fillcolor="#65e959"] ;
22 -> 26 ;
27 [label=<entropy = 0.857<br/>samples = 32<br/>value = [9, 23, 0, 0]<br/>class = acc>, fillcolor="#8fef86"] ;
26 -> 27 ;
28 [label=<entropy = 0.0<br/>samples = 32<br/>value = [0, 32, 0, 0]<br/>class = acc>, fillcolor="#47e539"] ;
26 -> 28 ;
29 [label=<buying &le; 2.5<br/>entropy = 0.813<br/>samples = 96<br/>value = [4, 79, 0, 13]<br/>class = acc>, fillcolor="#6dea62"] ;
21 -> 29 ;
30 [label=<doors &le; 0.5<br/>entropy = 0.25<br/>samples = 48<br/>value = [2, 46, 0, 0]<br/>class = acc>, fillcolor="#4fe642"] ;
29 -> 30 ;
31 [label=<entropy = 0.65<br/>samples = 12<br/>value = [2, 10, 0, 0]<br/>class = acc>, fillcolor="#6cea61"] ;
30 -> 31 ;
32 [label=<entropy = 0.0<br/>samples = 36<br/>value = [0, 36, 0, 0]<br/>class = acc>, fillcolor="#47e539"] ;
30 -> 32 ;
33 [label=<maint &le; 0.5<br/>entropy = 1.073<br/>samples = 48<br/>value = [2, 33, 0, 13]<br/>class = acc>, fillcolor="#96f08e"] ;
29 -> 33 ;
34 [label=<entropy = 0.25<br/>samples = 24<br/>value = [1, 23, 0, 0]<br/>class = acc>, fillcolor="#4fe642"] ;
33 -> 34 ;
35 [label=<entropy = 1.196<br/>samples = 24<br/>value = [1, 10, 0, 13]<br/>class = vgood>, fillcolor="#f6d5f9"] ;
33 -> 35 ;
36 [label=<safety &le; 1.5<br/>entropy = 1.76<br/>samples = 192<br/>value = [8, 63, 69, 52]<br/>class = good>, fillcolor="#f6fafe"] ;
20 -> 36 ;
37 [label=<lug_boot &le; 0.5<br/>entropy = 1.192<br/>samples = 96<br/>value = [4, 53, 39, 0]<br/>class = acc>, fillcolor="#d2f9ce"] ;
36 -> 37 ;
38 [label=<doors &le; 0.5<br/>entropy = 0.544<br/>samples = 32<br/>value = [4, 28, 0, 0]<br/>class = acc>, fillcolor="#61e955"] ;
37 -> 38 ;
39 [label=<entropy = 1.0<br/>samples = 8<br/>value = [4, 4, 0, 0]<br/>class = unacc>, fillcolor="#ffffff"] ;
38 -> 39 ;
40 [label=<entropy = 0.0<br/>samples = 24<br/>value = [0, 24, 0, 0]<br/>class = acc>, fillcolor="#47e539"] ;
38 -> 40 ;
41 [label=<maint &le; 2.5<br/>entropy = 0.965<br/>samples = 64<br/>value = [0, 25, 39, 0]<br/>class = good>, fillcolor="#b8dcf6"] ;
37 -> 41 ;
42 [label=<entropy = 0.974<br/>samples = 32<br/>value = [0, 19, 13, 0]<br/>class = acc>, fillcolor="#c5f7c0"] ;
41 -> 42 ;
43 [label=<entropy = 0.696<br/>samples = 32<br/>value = [0, 6, 26, 0]<br/>class = good>, fillcolor="#67b4eb"] ;
41 -> 43 ;
44 [label=<lug_boot &le; 0.5<br/>entropy = 1.534<br/>samples = 96<br/>value = [4, 10, 30, 52]<br/>class = vgood>, fillcolor="#f2bdf6"] ;
36 -> 44 ;
45 [label=<doors &le; 0.5<br/>entropy = 1.253<br/>samples = 32<br/>value = [4, 7, 21, 0]<br/>class = good>, fillcolor="#90c8f0"] ;
44 -> 45 ;
46 [label=<entropy = 1.406<br/>samples = 8<br/>value = [4, 1, 3, 0]<br/>class = unacc>, fillcolor="#fae6d7"] ;
45 -> 46 ;
47 [label=<entropy = 0.811<br/>samples = 24<br/>value = [0, 6, 18, 0]<br/>class = good>, fillcolor="#7bbeee"] ;
45 -> 47 ;
48 [label=<lug_boot &le; 1.5<br/>entropy = 0.848<br/>samples = 64<br/>value = [0, 3, 9, 52]<br/>class = vgood>, fillcolor="#e064eb"] ;
44 -> 48 ;
49 [label=<entropy = 1.259<br/>samples = 32<br/>value = [0, 3, 9, 20]<br/>class = vgood>, fillcolor="#eca0f3"] ;
48 -> 49 ;
50 [label=<entropy = 0.0<br/>samples = 32<br/>value = [0, 0, 0, 32]<br/>class = vgood>, fillcolor="#d739e5"] ;
48 -> 50 ;
}
